//Numpy array shape [128]
//Min 0.000000000000
//Max 0.000000000000
//Number of zeros 128

#ifndef B2_H_
#define B2_H_

#ifndef __SYNTHESIS__
bias2_t b2[128];
#else
bias2_t b2[128] = {0.5625, 0.6875, -0.0625, -0.6250, 0.2500, -0.1250, 0.0625, -0.3750, -0.3750, -0.5000, 0.3750, -0.4375, 0.2500, -0.1250, -0.5000, -0.0625, -0.3750, -0.0625, -0.5000, 0.0000, -0.1875, -0.2500, 0.3125, -0.1875, -0.3125, -0.3750, 0.7500, -0.0625, 0.0625, -0.6875, 0.1875, 0.7500, 0.0625, 0.5625, -0.2500, 0.0000, 0.1250, 0.5000, -0.0625, -0.2500, 0.0625, 0.5000, -0.1875, -0.5000, -0.3750, -0.3125, -0.1250, -0.2500, -0.3750, 0.3750, -0.3125, -0.5000, 0.5000, -0.3750, 0.5625, -0.2500, -0.5000, 0.2500, -0.6250, -0.3125, -0.3125, 0.0625, -0.2500, 0.0000, -0.8750, -0.3750, -0.3125, 0.0625, -0.0625, 0.1875, 0.4375, -0.3750, -0.3750, -0.0625, -0.5625, -0.1250, -0.3125, -0.2500, 0.0000, 0.1875, 0.1875, -0.5000, -0.6250, 0.5625, -0.1250, -0.0625, 0.2500, -0.3125, 0.0000, -0.1875, -0.1875, 0.0625, -0.4375, 0.4375, 0.5625, -0.3750, 0.1875, -0.3750, -0.3750, -0.1250, -0.1250, -0.3750, -0.6250, -0.4375, 0.0625, 0.6250, 0.0625, 0.2500, -0.4375, 0.0000, 0.0000, -0.2500, 0.3125, 0.8125, -0.2500, 0.0625, 0.1875, 0.1250, -0.5000, -0.1250, 0.2500, 0.3750, -0.8750, 0.3125, -0.3125, -0.4375, -0.4375, -0.6250};
#endif

#endif
